FANN_FLO_2.1
num_layers=7
learning_rate=0.700000
connection_rate=1.000000
network_type=1
learning_momentum=0.000000
training_algorithm=2
train_error_function=0
train_stop_function=1
cascade_output_change_fraction=0.010000
quickprop_decay=-0.000100
quickprop_mu=1.750000
rprop_increase_factor=1.200000
rprop_decrease_factor=0.500000
rprop_delta_min=0.000000
rprop_delta_max=50.000000
rprop_delta_zero=0.100000
cascade_output_stagnation_epochs=12
cascade_candidate_change_fraction=0.010000
cascade_candidate_stagnation_epochs=12
cascade_max_out_epochs=150
cascade_min_out_epochs=50
cascade_max_cand_epochs=150
cascade_min_cand_epochs=50
cascade_num_candidate_groups=8
bit_fail_limit=8.99999976158142089844e-01
cascade_candidate_limit=1.00000000000000000000e+03
cascade_weight_multiplier=4.00000005960464477539e-01
cascade_activation_functions_count=1
cascade_activation_functions=5 
cascade_activation_steepnesses_count=1
cascade_activation_steepnesses=1.00000000000000000000e+00 
layer_sizes=9 1 1 1 1 1 1 
scale_included=0
neurons (num_inputs, activation_function, activation_steepness)=(0, 0, 0.00000000000000000000e+00) (0, 0, 0.00000000000000000000e+00) (0, 0, 0.00000000000000000000e+00) (0, 0, 0.00000000000000000000e+00) (0, 0, 0.00000000000000000000e+00) (0, 0, 0.00000000000000000000e+00) (0, 0, 0.00000000000000000000e+00) (0, 0, 0.00000000000000000000e+00) (0, 0, 0.00000000000000000000e+00) (9, 5, 1.00000000000000000000e+00) (10, 5, 1.00000000000000000000e+00) (11, 5, 1.00000000000000000000e+00) (12, 5, 1.00000000000000000000e+00) (13, 5, 1.00000000000000000000e+00) (14, 0, 5.00000000000000000000e-01) 
connections (connected_to_neuron, weight)=(0, 1.78596878051757812500e+00) (1, 1.78686499595642089844e+00) (2, 1.78607821464538574219e+00) (3, 1.78589475154876708984e+00) (4, 1.78604531288146972656e+00) (5, 1.78691673278808593750e+00) (6, 1.78604054450988769531e+00) (7, 1.78587937355041503906e+00) (8, 1.78659927845001220703e+00) (0, 1.69532513618469238281e+00) (1, 1.69887745380401611328e+00) (2, 1.69747388362884521484e+00) (3, 1.70003676414489746094e+00) (4, 1.69923877716064453125e+00) (5, 1.69969499111175537109e+00) (6, 1.69814395904541015625e+00) (7, 1.69930732250213623047e+00) (8, 1.70371937751770019531e+00) (9, -3.13607883453369140625e+00) (0, 1.67044198513031005859e+00) (1, 1.67622578144073486328e+00) (2, 1.67591619491577148438e+00) (3, 1.67577505111694335938e+00) (4, 1.67664384841918945312e+00) (5, 1.67563045024871826172e+00) (6, 1.67898285388946533203e+00) (7, 1.67337656021118164062e+00) (8, 1.67994844913482666016e+00) (9, -3.67133831977844238281e+00) (10, -2.09442830085754394531e+00) (0, -6.60934984683990478516e-01) (1, -6.51364564895629882812e-01) (2, -6.61866009235382080078e-01) (3, -6.62580490112304687500e-01) (4, -6.64228081703186035156e-01) (5, -6.50248110294342041016e-01) (6, -6.67170166969299316406e-01) (7, -6.62680745124816894531e-01) (8, -6.67088747024536132812e-01) (9, 1.60800838470458984375e+00) (10, 9.72425997257232666016e-01) (11, 9.78313207626342773438e-01) (0, -3.90767484903335571289e-01) (1, -3.82029056549072265625e-01) (2, -3.90354931354522705078e-01) (3, -3.91462594270706176758e-01) (4, -3.92641097307205200195e-01) (5, -3.81414830684661865234e-01) (6, -3.94337624311447143555e-01) (7, -3.91387671232223510742e-01) (8, -3.94352406263351440430e-01) (9, 9.60623919963836669922e-01) (10, 5.81435918807983398438e-01) (11, 6.09988391399383544922e-01) (12, -8.19874644279479980469e-01) (0, 6.09987497329711914062e-01) (1, 6.14229917526245117188e-01) (2, 5.96339702606201171875e-01) (3, 6.20562553405761718750e-01) (4, 5.93743443489074707031e-01) (5, 6.13600194454193115234e-01) (6, 5.97910881042480468750e-01) (7, 5.82388520240783691406e-01) (8, 5.93258678913116455078e-01) (9, -2.52730751037597656250e+00) (10, 3.85224103927612304688e-01) (11, -3.26399087905883789062e+00) (12, -1.90967953205108642578e+00) (13, 7.96310520172119140625e+00) 
